digraph Tree {
node [shape=box] ;
0 [label="Ingreso anual <= 0.5\ngini = 0.48\nsamples = 10\nvalue = [4, 6]\nclass = No aprobado"] ;
1 [label="gini = 0.0\nsamples = 4\nvalue = [0, 4]\nclass = No aprobado"] ;
0 -> 1 [labeldistance=2.5, labelangle=45, headlabel="True"] ;
2 [label="Tiene_casa <= 0.5\ngini = 0.444\nsamples = 6\nvalue = [4, 2]\nclass = Aprobado"] ;
0 -> 2 [labeldistance=2.5, labelangle=-45, headlabel="False"] ;
3 [label="gini = 0.0\nsamples = 4\nvalue = [4, 0]\nclass = Aprobado"] ;
2 -> 3 ;
4 [label="gini = 0.0\nsamples = 2\nvalue = [0, 2]\nclass = No aprobado"] ;
2 -> 4 ;
}